tree
version=v4
num_class=1
num_tree_per_iteration=1
label_index=0
max_feature_idx=7
objective=binary sigmoid:1
feature_names=Column_0 Column_1 Column_2 Column_3 Column_4 Column_5 Column_6 Column_7
feature_infos=[170190:760421] [1:6] [3.175344697055416:238.96955188057061] [0.051473992281669823:391.95243405363021] [0.600515837730209:0.99930778477715299] [-0.99726500387135153:0.98653908148616642] [0:1] [0.70302577919402687:1.0499435346572261]
tree_sizes=438 467 677 461 467 360 561 678 674 786 786 682 784 890 676 363 573 571 680 362 680 470 680 579 467 469 465 786 467 575 579 363 685 789 578 895 574 787 463 572 686 682 576 785 470 362 465 573 572 788 576 572 470 471 470 469 677 999 681 680 676 791 574 900 782 362 467 895 466 570 789 686 678 904 577 472 681 574 684 680 896 794 576 468 577 473 361 473 580 680 579 683 691 690 470 474 471 575 475 580

Tree=0
num_leaves=3
num_cat=0
split_feature=1 2
split_gain=500 1.42109e-14
threshold=4.0000000000000009 31.787783268488923
decision_type=2 2
left_child=1 -1
right_child=-2 -3
leaf_value=-1.448794363448197 -1.1362943518066646 -1.448794363448197
leaf_weight=4.6399998962879172 15.99999964237213 59.359998673200607
leaf_count=29 100 371
internal_value=-1.38629 -1.44879
internal_weight=80 64
internal_count=500 400
is_linear=0
shrinkage=1


Tree=1
num_leaves=3
num_cat=0
split_feature=1 2
split_gain=405.46 2.84217e-14
threshold=4.0000000000000009 209.47156146000151
decision_type=2 2
left_child=1 -1
right_child=-2 -3
leaf_value=-0.061742664360129422 0.20576014658815583 -0.061742664360129422
leaf_weight=53.751590251922607 18.395170569419861 7.8548169136047354
leaf_count=349 100 51
internal_value=-0.000234379 -0.0617427
internal_weight=80.0016 61.6064
internal_count=500 400
is_linear=0
shrinkage=0.05


Tree=2
num_leaves=5
num_cat=0
split_feature=1 3 0 2
split_gain=341.898 2.84217e-14 1.42109e-14 1.42109e-14
threshold=4.0000000000000009 163.31935053765133 220245.00000000003 160.81403418352559
decision_type=2 2 2 2
left_child=2 -2 -1 -4
right_child=1 -3 3 -5
leaf_value=-0.061039569822217032 0.17679316791578106 0.17679316791578117 -0.061039569822217032 -0.061039569822217032
leaf_weight=13.77787211537361 6.8962631225585964 13.386863708496092 29.481683343648911 16.000109553337097
leaf_count=93 34 66 199 108
internal_value=-0.000393074 0.176793 -0.0610396 -0.0610396
internal_weight=79.5428 20.2831 59.2597 45.4818
internal_count=500 100 400 307
is_linear=0
shrinkage=0.05


Tree=3
num_leaves=3
num_cat=0
split_feature=1 2
split_gain=295.572 2.84217e-14
threshold=4.0000000000000009 12.48905750002532
decision_type=2 2
left_child=-1 -2
right_child=1 -3
leaf_value=-0.060385870564369851 0.15624673227533062 0.1562467322753307
leaf_weight=56.964236497879028 7.1808797568082836 14.579361930489538
leaf_count=400 33 67
internal_value=-0.000506429 0.156247
internal_weight=78.7245 21.7602
internal_count=500 100
is_linear=0
shrinkage=0.05


Tree=4
num_leaves=3
num_cat=0
split_feature=1 2
split_gain=259.963 1.42109e-14
threshold=4.0000000000000009 203.44853728167567
decision_type=2 2
left_child=1 -1
right_child=-2 -3
leaf_value=-0.059777271061303566 0.1408779379145883 -0.059777271061303566
leaf_weight=46.104725524783134 22.895097732543945 8.6189842969179136
leaf_count=337 100 63
internal_value=-0.000590319 -0.0597773
internal_weight=77.6188 54.7237
internal_count=500 400
is_linear=0
shrinkage=0.05


Tree=5
num_leaves=2
num_cat=0
split_feature=1
split_gain=231.539
threshold=4.0000000000000009
decision_type=2
left_child=-1
right_child=-2
leaf_value=-0.059209938943160005 0.12893615298553718
leaf_weight=52.54090428352356 23.740865290164948
leaf_count=400 100
internal_value=-0.000653995
internal_weight=76.2818
internal_count=500
is_linear=0
shrinkage=0.05


Tree=6
num_leaves=4
num_cat=0
split_feature=1 2 2
split_gain=208.203 2.84217e-14 1.42109e-14
threshold=4.0000000000000009 22.98979081629955 9.0980385535869122
decision_type=2 2 2
left_child=-1 2 -2
right_child=1 -3 -4
leaf_value=-0.058680449977608941 0.11938725398067454 0.11938725398067462 0.11938725398067462
leaf_weight=50.417971611022949 4.8681479692459133 9.979703336954115 9.492888540029524
leaf_count=400 20 41 39
internal_value=-0.000703265 0.119387 0.119387
internal_weight=74.7587 24.3407 14.361
internal_count=500 100 59
is_linear=0
shrinkage=0.05


Tree=7
num_leaves=5
num_cat=0
split_feature=1 0 1 5
split_gain=188.627 1.42109e-14 1.42109e-14 1.77636e-15
threshold=4.0000000000000009 220245.00000000003 5.5000000000000009 -0.035360927144464475
decision_type=2 2 2 2
left_child=1 3 -2 -1
right_child=2 -3 -4 -5
leaf_value=-0.058185731941084479 0.11157869557227254 -0.058185731941084479 0.11157869557227254 -0.058185731941084479
leaf_weight=8.4623823314905149 14.096548408269882 37.113591082394123 10.63423827290535 2.7804970517754546
leaf_count=70 57 307 43 23
internal_value=-0.000741958 -0.0581857 0.111579 -0.0581857
internal_weight=73.0873 48.3565 24.7308 11.2429
internal_count=500 400 100 93
is_linear=0
shrinkage=0.05


Tree=8
num_leaves=5
num_cat=0
split_feature=1 2 3 2
split_gain=171.922 1.42109e-14 1.42109e-14 3.55271e-15
threshold=4.0000000000000009 23.467460903288583 31.103122166778597 154.92645179929772
decision_type=2 2 2 2
left_child=2 -2 -1 -4
right_child=1 -3 3 -5
leaf_value=-0.057723034184355482 0.10507727754346459 0.10507727754346462 -0.057723034184355461 -0.057723034184355482
leaf_weight=29.08930354565382 15.463811010122301 9.4778196513652784 10.894002124667169 6.3741501793265334
leaf_count=251 62 38 94 55
internal_value=-0.000772722 0.105077 -0.057723 -0.057723
internal_weight=71.2991 24.9416 46.3575 17.2682
internal_count=500 100 400 149
is_linear=0
shrinkage=0.05


Tree=9
num_leaves=6
num_cat=0
split_feature=1 2 0 2 2
split_gain=157.468 1.42109e-14 7.10543e-15 7.10543e-15 3.55271e-15
threshold=4.0000000000000009 24.781443472020651 700704.50000000012 32.691165412153154 101.37997095271267
decision_type=2 2 2 2 2
left_child=2 -2 3 -1 -4
right_child=1 -3 4 -5 -6
leaf_value=-0.057289853774421952 0.099583588718861013 0.099583588718861027 -0.057289853774421966 -0.057289853774421952 -0.057289853774421945
leaf_weight=2.5542384758591643 16.749707475304607 8.2498559206724149 4.1089923307299596 30.539807863533497 7.2185000404715538
leaf_count=23 67 33 37 275 65
internal_value=-0.000797412 0.0995836 -0.0572899 -0.0572899 -0.0572899
internal_weight=69.4211 24.9996 44.4215 33.094 11.3275
internal_count=500 100 400 298 102
is_linear=0
shrinkage=0.05


Tree=10
num_leaves=6
num_cat=0
split_feature=1 1 2 2 2
split_gain=144.821 1.42109e-14 7.10543e-15 3.55271e-15 3.55271e-15
threshold=4.0000000000000009 1.5000000000000002 159.95837945170109 209.92419350660194 93.057078840691261
decision_type=2 2 2 2 2
left_child=1 3 4 -1 -3
right_child=-2 2 -4 -5 -6
leaf_value=-0.056883961713392564 0.094883777844875769 -0.056883961713392529 -0.056883961713392578 -0.056883961713392578 -0.056883961713392578
leaf_weight=15.21124590188265 24.927313625812531 8.2970432192087227 8.2970432192087156 2.5529363751411429 8.1906708702445012
leaf_count=143 100 78 78 24 77
internal_value=-0.000817392 -0.056884 -0.056884 -0.056884 -0.056884
internal_weight=67.4763 42.5489 24.7848 17.7642 16.4877
internal_count=500 400 233 167 155
is_linear=0
shrinkage=0.05


Tree=11
num_leaves=5
num_cat=0
split_feature=1 2 2 3
split_gain=133.65 7.10543e-15 3.55271e-15 8.88178e-16
threshold=4.0000000000000009 173.44008455122022 203.44853728167567 19.869009473742942
decision_type=2 2 2 2
left_child=1 -1 3 -3
right_child=-2 2 -4 -5
leaf_value=-0.056503304187117888 0.090820836623842771 -0.056503304187117909 -0.056503304187117881 -0.056503304187117867
leaf_weight=29.128785490989685 24.744626879692078 2.0369780063629133 6.4164807200431824 3.1573159098625183
leaf_count=286 100 20 63 31
internal_value=-0.000833668 -0.0565033 -0.0565033 -0.0565033
internal_weight=65.4842 40.7396 11.6108 5.19429
internal_count=500 400 114 51
is_linear=0
shrinkage=0.05


Tree=12
num_leaves=6
num_cat=0
split_feature=1 3 3 2 2
split_gain=123.704 1.42109e-14 1.42109e-14 3.55271e-15 3.55271e-15
threshold=4.0000000000000009 27.184050651935959 325.57566587788511 209.92419350660194 114.61378969284404
decision_type=2 2 2 2 2
left_child=1 -1 -2 4 -3
right_child=2 3 -4 -5 -6
leaf_value=-0.056146034312135454 0.087276823993561278 -0.056146034312135398 0.087276823993561292 -0.056146034312135454 -0.056146034312135454
leaf_weight=20.373849242925644 19.330279350280765 8.0910501778125816 5.1384286880493155 2.4370633065700522 8.0910501778125745
leaf_count=209 79 83 21 25 83
internal_value=-0.000846997 -0.056146 0.0872768 -0.056146 -0.056146
internal_weight=63.4617 38.993 24.4687 18.6192 16.1821
internal_count=500 400 100 191 166
is_linear=0
shrinkage=0.05


Tree=13
num_leaves=7
num_cat=0
split_feature=1 0 2 2 2 2
split_gain=114.788 1.42109e-14 7.10543e-15 3.55271e-15 1.77636e-15 1.77636e-15
threshold=4.0000000000000009 760415.50000000012 178.51733048187276 21.172694137553361 226.06940519453227 209.47156146000151
decision_type=2 2 2 2 2 2
left_child=2 -2 -1 -3 5 -4
right_child=1 3 4 -5 -6 -7
leaf_value=-0.055810466429011746 0.084161348386231266 0.084161348386231266 -0.055810466429011753 0.084161348386231266 -0.055810466429011718 -0.055810466429011718
leaf_weight=27.235326260328293 13.021871834993362 5.7874985933303833 5.3164849206805211 5.3052070438861847 2.2385199666023254 2.5183349624276161
leaf_count=292 54 24 57 22 24 27
internal_value=-0.00085796 0.0841613 -0.0558105 0.0841613 -0.0558105 -0.0558105
internal_weight=61.4232 24.1146 37.3087 11.0927 10.0733 7.83482
internal_count=500 100 400 46 108 84
is_linear=0
shrinkage=0.05


Tree=14
num_leaves=5
num_cat=0
split_feature=1 1 2 2
split_gain=106.751 7.10543e-15 7.10543e-15 8.88178e-16
threshold=4.0000000000000009 5.5000000000000009 51.795446672886179 42.361634751810527
decision_type=2 2 2 2
left_child=2 -2 3 -1
right_child=1 -3 -4 -5
leaf_value=-0.055495066823638396 0.081403947895591189 0.081403947895591189 -0.055495066823638396 -0.055495066823638362
leaf_weight=4.3714971765875807 13.50635527074337 10.189004853367805 29.440695270895958 1.8734987899661062
leaf_count=49 57 43 330 21
internal_value=-0.00086701 0.0814039 -0.0554951 -0.0554951
internal_weight=59.3811 23.6954 35.6857 6.245
internal_count=500 100 400 70
is_linear=0
shrinkage=0.05


Tree=15
num_leaves=2
num_cat=0
split_feature=1
split_gain=99.4675
threshold=4.0000000000000009
decision_type=2
left_child=-1
right_child=-2
leaf_value=-0.055198423414610981 0.078948824332365122
leaf_weight=34.123086929321289 23.222534358501434
leaf_count=400 100
internal_value=-0.000874501
internal_weight=57.3456
internal_count=500
is_linear=0
shrinkage=0.05


Tree=16
num_leaves=4
num_cat=0
split_feature=1 2 2
split_gain=92.8393 7.10543e-15 7.10543e-15
threshold=4.0000000000000009 25.229668105375548 24.21399400081923
decision_type=2 2 2
left_child=1 -1 -2
right_child=2 -3 -4
leaf_value=-0.054919250235510822 0.076751237348424886 -0.054919250235510822 0.076751237348424914
leaf_weight=1.8756330832839001 14.531923294067385 30.744072712957859 8.1742068529129011
leaf_count=23 64 377 36
internal_value=-0.000880713 -0.0549193 0.0767512
internal_weight=55.3258 32.6197 22.7061
internal_count=500 400 100
is_linear=0
shrinkage=0.05


Tree=17
num_leaves=4
num_cat=0
split_feature=1 2 2
split_gain=86.784 7.10543e-15 7.10543e-15
threshold=4.0000000000000009 211.6053310451075 12.321694310726004
decision_type=2 2 2
left_child=1 -1 -2
right_child=2 -3 -4
leaf_value=-0.054656376830076681 0.07477486075716086 -0.054656376830076694 0.074774860757160888
leaf_weight=27.900984376668934 6.8680228292942074 3.2732998430728903 15.286889523267744
leaf_count=358 31 42 69
internal_value=-0.000885874 -0.0546564 0.0747749
internal_weight=53.3292 31.1743 22.1549
internal_count=500 400 100
is_linear=0
shrinkage=0.05


Tree=18
num_leaves=5
num_cat=0
split_feature=1 1 1 2
split_gain=81.2332 7.10543e-15 7.10543e-15 1.77636e-15
threshold=4.0000000000000009 2.5000000000000004 5.5000000000000009 146.81270314415289
decision_type=2 2 2 2
left_child=1 -1 -2 -3
right_child=2 3 -4 -5
leaf_value=-0.054408703562735083 0.072989892581790533 -0.054408703562735056 0.072989892581790533 -0.054408703562735077
leaf_weight=21.519999325275421 12.298619404435158 4.3933562636375445 9.2779058665037155 3.8721106052398682
leaf_count=289 57 59 43 52
internal_value=-0.000890159 -0.0544087 0.0729899 -0.0544087
internal_weight=51.362 29.7855 21.5765 8.26547
internal_count=500 400 100 111
is_linear=0
shrinkage=0.05


Tree=19
num_leaves=2
num_cat=0
split_feature=1
split_gain=76.1294
threshold=4.0000000000000009
decision_type=2
left_child=-1
right_child=-2
leaf_value=-0.054175242360121625 0.07137164107137936
leaf_weight=28.451821208000183 20.977634191513062
leaf_count=400 100
internal_value=-0.000893721
internal_weight=49.4295
internal_count=500
is_linear=0
shrinkage=0.05


Tree=20
num_leaves=5
num_cat=0
split_feature=1 1 2 2
split_gain=71.4242 7.10543e-15 7.10543e-15 3.55271e-15
threshold=4.0000000000000009 5.5000000000000009 162.53124125511522 34.388804953243898
decision_type=2 2 2 2
left_child=2 -2 3 -1
right_child=1 -3 -4 -5
leaf_value=-0.053955069459784358 0.069899468545129018 0.069899468545129018 -0.053955069459784538 -0.053955069459784538
leaf_weight=2.2416781336069169 11.60749863088131 8.7565340548753738 9.3742903769016248 15.555887654423712
leaf_count=33 57 43 138 229
internal_value=-0.000896677 0.0698995 -0.0539551 -0.0539551
internal_weight=47.5359 20.364 27.1719 17.7976
internal_count=500 100 400 262
is_linear=0
shrinkage=0.05


Tree=21
num_leaves=3
num_cat=0
split_feature=1 2
split_gain=67.0758 7.10543e-15
threshold=4.0000000000000009 103.74559699950306
decision_type=2 2
left_child=1 -1
right_child=-2 -3
leaf_value=-0.053747321913801077 0.068556008209671199 -0.053747321913801098
leaf_weight=10.183037735521795 19.740745425224304 15.761007450520991
leaf_count=157 100 243
internal_value=-0.000899123 -0.0537473
internal_weight=45.6848 25.944
internal_count=500 400
is_linear=0
shrinkage=0.05


Tree=22
num_leaves=5
num_cat=0
split_feature=1 1 2 2
split_gain=63.0486 7.10543e-15 3.55271e-15 1.77636e-15
threshold=4.0000000000000009 5.5000000000000009 160.81403418352559 185.09165180869249
decision_type=2 2 2 2
left_child=2 -2 -1 -4
right_child=1 -3 3 -5
leaf_value=-0.053551230261625643 0.067326512358404006 0.067326512358403992 -0.053551230261625664 -0.053551230261625643
leaf_weight=16.036517348140482 10.893909573554993 8.2182124853134155 2.9720186591148359 5.7582861520349979
leaf_count=259 57 43 48 93
internal_value=-0.000901145 0.0673265 -0.0535512 -0.0535512
internal_weight=43.8789 19.1121 24.7668 8.7303
internal_count=500 100 400 141
is_linear=0
shrinkage=0.05


Tree=23
num_leaves=4
num_cat=0
split_feature=1 2 2
split_gain=59.3115 3.55271e-15 3.55271e-15
threshold=4.0000000000000009 167.14121194328882 88.129938429516855
decision_type=2 2 2
left_child=1 2 -1
right_child=-2 -3 -4
leaf_value=-0.053366067389112926 0.066198379424332821 -0.053366067389112981 -0.053366067389112981
leaf_weight=7.5052579008042875 18.481910228729248 7.6234509386122218 8.5098987221717817
leaf_count=127 100 129 144
internal_value=-0.000902815 -0.0533661 -0.0533661
internal_weight=42.1205 23.6386 16.0152
internal_count=500 400 271
is_linear=0
shrinkage=0.05


Tree=24
num_leaves=3
num_cat=0
split_feature=1 0
split_gain=55.8375 3.55271e-15
threshold=4.0000000000000009 760415.50000000012
decision_type=2 2
left_child=-1 -2
right_child=1 -3
leaf_value=-0.053191138764306027 0.065160797775375298 0.065160797775375298
leaf_weight=22.557817399501801 9.6407982409000397 8.2125318348407745
leaf_count=400 54 46
internal_value=-0.000904175 0.0651608
internal_weight=40.4111 17.8533
internal_count=500 100
is_linear=0
shrinkage=0.05


Tree=25
num_leaves=3
num_cat=0
split_feature=1 2
split_gain=52.6028 7.10543e-15
threshold=4.0000000000000009 191.06318042426639
decision_type=2 2
left_child=1 -1
right_child=-2 -3
leaf_value=-0.053025835122573445 0.064204407368308347 -0.053025835122573452
leaf_weight=17.003060758113865 17.229130864143372 4.5198009610176078
leaf_count=316 100 84
internal_value=-0.000905285 -0.0530258
internal_weight=38.752 21.5229
internal_count=500 400
is_linear=0
shrinkage=0.05


Tree=26
num_leaves=3
num_cat=0
split_feature=1 2
split_gain=49.5865 3.55271e-15
threshold=4.0000000000000009 19.070446851939309
decision_type=2 2
left_child=-1 -2
right_child=1 -3
leaf_value=-0.052869564643104362 0.063321076903342224 0.063321076903342252
leaf_weight=20.532163977622986 7.6413592696189907 8.970291316509245
leaf_count=400 46 54
internal_value=-0.00090618 0.0633211
internal_weight=37.1438 16.6117
internal_count=500 100
is_linear=0
shrinkage=0.05


Tree=27
num_leaves=6
num_cat=0
split_feature=1 0 4 2 2
split_gain=46.7701 3.55271e-15 3.55271e-15 1.77636e-15 1.77636e-15
threshold=4.0000000000000009 455649.50000000006 0.6855855696977261 212.80571253320099 183.89688842744889
decision_type=2 2 2 2 2
left_child=1 3 -2 4 -1
right_child=2 -3 -4 -5 -6
leaf_value=-0.052721795094693213 0.062503722296476702 -0.052721795094693213 0.062503722296476757 -0.05272179509469313 -0.052721795094693186
leaf_weight=7.588860671967268 5.1209154129028347 9.7920782864093763 10.881945252418516 0.97920782864093858 1.224009785801172
leaf_count=155 32 200 68 20 25
internal_value=-0.000906891 -0.0527218 0.0625037 -0.0527218 -0.0527218
internal_weight=35.587 19.5842 16.0029 9.79208 8.81287
internal_count=500 400 100 200 180
is_linear=0
shrinkage=0.05


Tree=28
num_leaves=3
num_cat=0
split_feature=1 2
split_gain=44.1371 3.55271e-15
threshold=4.0000000000000009 19.070446851939309
decision_type=2 2
left_child=-1 -2
right_child=1 -3
leaf_value=-0.052582011727666293 0.061746120325905401 0.061746120325905401
leaf_weight=18.677297234535217 7.0860282182693473 8.3183809518814069
leaf_count=400 46 54
internal_value=-0.000907448 0.0617461
internal_weight=34.0817 15.4044
internal_count=500 100
is_linear=0
shrinkage=0.05


Tree=29
num_leaves=4
num_cat=0
split_feature=1 2 2
split_gain=41.6728 3.55271e-15 4.44089e-16
threshold=4.0000000000000009 200.44219157476402 229.22833234661763
decision_type=2 2 2
left_child=1 -1 -3
right_child=-2 2 -4
leaf_value=-0.05244975561261836 0.061042781014860575 -0.05244975561261836 -0.052449755612618325
leaf_weight=14.737827185541393 14.817665517330168 2.1372075676918025 0.93502831086516369
leaf_count=331 100 48 21
internal_value=-0.000907876 -0.0524498 -0.0524498
internal_weight=32.6277 17.8101 3.07224
internal_count=500 400 69
is_linear=0
shrinkage=0.05


Tree=30
num_leaves=4
num_cat=0
split_feature=1 5 5
split_gain=39.364 3.55271e-15 1.77636e-15
threshold=4.0000000000000009 -0.22634596450204422 0.23344691677150434
decision_type=2 2 2
left_child=1 -1 -3
right_child=-2 2 -4
leaf_value=-0.052324576633126896 0.060388854644759349 -0.052324576633126889 -0.052324576633126875
leaf_weight=9.6366961933672446 14.243745803833006 6.2405037023127106 1.1037625595927236
leaf_count=227 100 147 26
internal_value=-0.000908197 -0.0523246 -0.0523246
internal_weight=31.2247 16.981 7.34427
internal_count=500 400 173
is_linear=0
shrinkage=0.05


Tree=31
num_leaves=2
num_cat=0
split_feature=1
split_gain=37.1988
threshold=4.0000000000000009
decision_type=2
left_child=-1
right_child=-2
leaf_value=-0.052206073690214932 0.059780054673521023
leaf_weight=16.188530623912815 13.683547079563139
leaf_count=400 100
internal_value=-0.000908421
internal_weight=29.8721
internal_count=500
is_linear=0
shrinkage=0.05


Tree=32
num_leaves=5
num_cat=0
split_feature=1 2 2 3
split_gain=35.1665 3.55271e-15 3.55271e-15 1.77636e-15
threshold=4.0000000000000009 229.22833234661763 188.62517351533731 45.929735888641972
decision_type=2 2 2 2
left_child=1 2 3 -1
right_child=-2 -3 -4 -5
leaf_value=-0.052093856223717032 0.059212535382071933 -0.052093856223716907 -0.052093856223716983 -0.052093856223716921
leaf_weight=11.187721528112885 13.137775659561155 0.81014535203576166 2.5461711063981065 0.88730205222964365
leaf_count=290 100 21 66 23
internal_value=-0.000908569 -0.0520939 -0.0520939 -0.0520939
internal_weight=28.5691 15.4313 14.6212 12.075
internal_count=500 400 379 313
is_linear=0
shrinkage=0.05


Tree=33
num_leaves=6
num_cat=0
split_feature=1 2 2 2 5
split_gain=33.2573 3.55271e-15 3.55271e-15 1.77636e-15 1.77636e-15
threshold=4.0000000000000009 226.06940519453227 23.467460903288583 200.44219157476402 -0.099469197028037179
decision_type=2 2 2 2 2
left_child=1 3 -2 4 -1
right_child=2 -3 -4 -5 -6
leaf_value=-0.051987569868201515 0.058682875762050807 -0.05198756986820139 0.058682875762050793 -0.051987569868201446 -0.051987569868201466
leaf_weight=8.3835585415363276 7.8163210749626142 0.88247984647750932 4.7906484007835388 1.6546497121453292 3.7873093411326417
leaf_count=228 62 24 38 45 103
internal_value=-0.000908653 -0.0519876 0.0586829 -0.0519876 -0.0519876
internal_weight=27.315 14.708 12.607 13.8255 12.1709
internal_count=500 400 100 376 331
is_linear=0
shrinkage=0.05


Tree=34
num_leaves=4
num_cat=0
split_feature=1 2 2
split_gain=31.4624 3.55271e-15 1.77636e-15
threshold=4.0000000000000009 229.22833234661763 206.13299324343475
decision_type=2 2 2
left_child=1 2 -1
right_child=-2 -3 -4
leaf_value=-0.051886879905123411 0.058188001626228072 -0.051886879905123286 -0.051886879905123341
leaf_weight=12.019700847566126 12.091521918773649 0.73590005189180452 1.2615429461002357
leaf_count=343 100 21 36
internal_value=-0.000908678 -0.0518869 -0.0518869
internal_weight=26.1087 14.0171 13.2812
internal_count=500 400 379
is_linear=0
shrinkage=0.05


Tree=35
num_leaves=7
num_cat=0
split_feature=1 2 2 0 2 2
split_gain=29.7739 3.55271e-15 3.55271e-15 1.77636e-15 1.77636e-15 8.88178e-16
threshold=4.0000000000000009 226.06940519453227 24.781443472020651 700704.50000000012 204.39346104810315 167.14121194328882
decision_type=2 2 2 2 2 2
left_child=1 3 -2 4 -1 -5
right_child=2 -3 -4 5 -6 -7
leaf_value=-0.051791474403117981 0.057725155269522502 -0.051791474403117856 0.057725155269522481 -0.051791474403117925 -0.051791474403117856 -0.051791474403117925
leaf_weight=8.4819883629679644 7.7664348185062391 0.80144771933555681 3.8252589404582977 2.2373748831450953 0.76805406436324197 1.0685969591140745
leaf_count=254 67 24 33 67 23 32
internal_value=-0.000908661 -0.0517915 0.0577252 -0.0517915 -0.0517915 -0.0517915
internal_weight=24.9492 13.3575 11.5917 12.556 9.25004 3.30597
internal_count=500 400 100 376 277 99
is_linear=0
shrinkage=0.05


Tree=36
num_leaves=4
num_cat=0
split_feature=1 0 0
split_gain=28.1842 1.77636e-15 1.77636e-15
threshold=4.0000000000000009 220245.00000000003 760415.50000000012
decision_type=2 2 2
left_child=1 -1 -2
right_child=2 -3 -4
leaf_value=-0.051701050975742083 0.057291841973070128 -0.051701050975742138 0.057291841973070114
leaf_weight=2.9591837078332928 5.9981251806020719 9.7684881538152677 5.1095140427350998
leaf_count=93 54 307 46
internal_value=-0.000908606 -0.0517011 0.0572918
internal_weight=23.8353 12.7277 11.1076
internal_count=500 400 100
is_linear=0
shrinkage=0.05


Tree=37
num_leaves=6
num_cat=0
split_feature=1 1 2 2 2
split_gain=26.6869 1.77636e-15 1.77636e-15 8.88178e-16 8.88178e-16
threshold=4.0000000000000009 1.5000000000000002 15.623757214380818 172.05376650181 154.92645179929772
decision_type=2 2 2 2 2
left_child=1 -1 -2 4 -3
right_child=2 3 -4 -5 -6
leaf_value=-0.051615342802884004 0.056885824988142514 -0.051615342802884025 0.056885824988142486 -0.051615342802884018 -0.051615342802883969
leaf_weight=5.0628275033086556 4.3621601238846761 4.4261845238506794 6.2772548124194145 1.8796126060187814 0.75790830887854088
leaf_count=167 41 146 59 62 25
internal_value=-0.000908517 -0.0516153 0.0568858 -0.0516153 -0.0516153
internal_weight=22.7659 12.1265 10.6394 7.06371 5.18409
internal_count=500 400 100 233 171
is_linear=0
shrinkage=0.05


Tree=38
num_leaves=3
num_cat=0
split_feature=1 2
split_gain=25.2756 1.77636e-15
threshold=4.0000000000000009 25.80711983189757
decision_type=2 2
left_child=-1 -2
right_child=1 -3
leaf_value=-0.051534077270645365 0.056505050116457893 0.056505050116457872
leaf_weight=11.55284494161606 7.538376718759535 2.6486188471317291
leaf_count=400 74 26
internal_value=-0.000908402 0.0565051
internal_weight=21.7398 10.187
internal_count=500 100
is_linear=0
shrinkage=0.05


Tree=39
num_leaves=4
num_cat=0
split_feature=1 0 4
split_gain=23.9447 1.77636e-15 1.77636e-15
threshold=4.0000000000000009 220245.00000000003 0.8652007958467397
decision_type=2 2 2
left_child=1 -1 -2
right_child=2 -3 -4
leaf_value=-0.051457025331623642 0.056147673079582884 -0.051457025331623711 0.056147673079582849
leaf_weight=2.5587662681937244 7.3127131909131986 8.446680046617983 2.4375710636377335
leaf_count=93 75 307 25
internal_value=-0.000908268 -0.051457 0.0561477
internal_weight=20.7557 11.0054 9.75028
internal_count=500 400 100
is_linear=0
shrinkage=0.05


Tree=40
num_leaves=5
num_cat=0
split_feature=1 2 3 3
split_gain=22.6891 1.77636e-15 1.77636e-15 1.77636e-15
threshold=4.0000000000000009 224.03142289761868 46.875540180657545 44.628862795059099
decision_type=2 2 2 2
left_child=1 2 3 -1
right_child=-2 -3 -4 -5
leaf_value=-0.051383947050020709 0.055812006207962263 -0.051383947050020563 -0.051383947050020543 -0.051383947050020522
leaf_weight=8.6486542224883998 9.3291245400905591 0.70761716365814287 0.60278499126434404 0.52416086196899492
leaf_count=330 100 27 23 20
internal_value=-0.000908117 -0.0513839 -0.0513839 -0.0513839
internal_weight=19.8123 10.4832 9.7756 9.17282
internal_count=500 400 373 350
is_linear=0
shrinkage=0.05


Tree=41
num_leaves=5
num_cat=0
split_feature=1 2 2 2
split_gain=21.5038 1.77636e-15 1.77636e-15 1.77636e-15
threshold=4.0000000000000009 224.03142289761868 208.43099787468699 26.933888986466886
decision_type=2 2 2 2
left_child=1 2 -1 -2
right_child=3 -3 -4 -5
leaf_value=-0.051314631434826265 0.055496510171489349 -0.051314631434826133 -0.051314631434826133 0.055496510171489315
leaf_weight=8.637090001255272 6.8709481582045537 0.67399257235229093 0.67399257235229093 2.0523611381649971
leaf_count=346 77 27 27 23
internal_value=-0.000907953 -0.0513146 -0.0513146 0.0554965
internal_weight=18.9084 9.98508 9.31108 8.92331
internal_count=500 400 373 100
is_linear=0
shrinkage=0.05


Tree=42
num_leaves=4
num_cat=0
split_feature=1 0 4
split_gain=20.3846 1.77636e-15 1.77636e-15
threshold=4.0000000000000009 220245.00000000003 0.84175179967942315
decision_type=2 2 2
left_child=1 -1 -3
right_child=-2 2 -4
leaf_value=-0.051248872323297945 0.055199788792484689 -0.051248872323297993 -0.051248872323298
leaf_weight=2.2110696416348237 8.5325866937637311 3.3284919336438179 3.9704153779894114
leaf_count=93 100 140 167
internal_value=-0.000907776 -0.0512489 -0.0512489
internal_weight=18.0426 9.50998 7.29891
internal_count=500 400 307
is_linear=0
shrinkage=0.05


Tree=43
num_leaves=6
num_cat=0
split_feature=1 2 2 2 2
split_gain=19.3273 3.55271e-15 1.77636e-15 1.77636e-15 8.88178e-16
threshold=4.0000000000000009 229.22833234661763 210.42178567068086 27.894441861455039 14.736461074589261
decision_type=2 2 2 2 2
left_child=1 2 -1 4 -2
right_child=3 -3 -4 -5 -6
leaf_value=-0.05118648090365327 0.054920535820309306 -0.051186480903653069 -0.051186480903653103 0.054920535820309258 0.054920535820309271
leaf_weight=8.0380150116980058 3.181102126836775 0.47548821195960123 0.54341509938240129 1.6313344240188596 3.3442355692386627
leaf_count=355 39 21 24 20 41
internal_value=-0.000907595 -0.0511865 -0.0511865 0.0549205 0.0549205
internal_weight=17.2136 9.05692 8.58143 8.15667 6.52534
internal_count=500 400 379 100 80
is_linear=0
shrinkage=0.05


Tree=44
num_leaves=3
num_cat=0
split_feature=1 2
split_gain=18.328 3.55271e-15
threshold=4.0000000000000009 224.03142289761868
decision_type=2 2
left_child=1 -1
right_child=-2 -3
leaf_value=-0.051127275328223358 0.054657582441697605 -0.051127275328223212
leaf_weight=8.0427485536783934 7.7952489256858817 0.58218287117779333
leaf_count=373 100 27
internal_value=-0.000907407 -0.0511273
internal_weight=16.4202 8.62493
internal_count=500 400
is_linear=0
shrinkage=0.05


Tree=45
num_leaves=2
num_cat=0
split_feature=1
split_gain=17.3833
threshold=4.0000000000000009
decision_type=2
left_child=-1
right_child=-2
leaf_value=-0.05107109246877875 0.054409845358983883
leaf_weight=8.2130864262580854 7.4479781091213235
leaf_count=400 100
internal_value=-0.000907215
internal_weight=15.6611
internal_count=500
is_linear=0
shrinkage=0.05


Tree=46
num_leaves=3
num_cat=0
split_feature=1 3
split_gain=16.4898 1.77636e-15
threshold=4.0000000000000009 325.57566587788511
decision_type=2 2
left_child=-1 -2
right_child=1 -3
leaf_value=-0.051017764615274977 0.054176319151384926 0.054176319151384891
leaf_weight=7.8204900026321411 5.6204566136002541 1.4940454289317129
leaf_count=400 79 21
internal_value=-0.000907023 0.0541763
internal_weight=14.935 7.1145
internal_count=500 100
is_linear=0
shrinkage=0.05


Tree=47
num_leaves=4
num_cat=0
split_feature=1 2 2
split_gain=15.6446 1.77636e-15 8.88178e-16
threshold=4.0000000000000009 170.49345863321719 22.98979081629955
decision_type=2 2 2
left_child=1 -1 -2
right_child=2 -3 -4
leaf_value=-0.050967142944764822 0.053956080227165186 -0.050967142944764822 0.053956080227165172
leaf_weight=5.156550532206893 4.0087248757481575 2.2897318247705698 2.7857240661978722
leaf_count=277 59 123 41
internal_value=-0.000906829 -0.0509671 0.0539561
internal_weight=14.2407 7.44628 6.79445
internal_count=500 400 100
is_linear=0
shrinkage=0.05


Tree=48
num_leaves=4
num_cat=0
split_feature=1 2 2
split_gain=14.8448 1.77636e-15 8.88178e-16
threshold=4.0000000000000009 22.98979081629955 51.795446672886179
decision_type=2 2 2
left_child=2 -2 -1
right_child=1 -3 -4
leaf_value=-0.05091908478676959 0.053748279602098825 0.053748279602098825 -0.050919084786769611
leaf_weight=1.2406869046390054 3.8275867104530334 2.6598483920097351 5.8489525504410267
leaf_count=70 59 41 330
internal_value=-0.000906637 0.0537483 -0.0509191
internal_weight=13.5771 6.48744 7.08964
internal_count=500 100 400
is_linear=0
shrinkage=0.05


Tree=49
num_leaves=6
num_cat=0
split_feature=1 0 2 2 2
split_gain=14.0877 8.88178e-16 1.77636e-15 8.88178e-16 2.22045e-16
threshold=4.0000000000000009 220245.00000000003 72.505110563579365 26.933888986466886 79.769531227953181
decision_type=2 2 2 2 2
left_child=1 4 -3 -2 -1
right_child=3 2 -4 -5 -6
leaf_value=-0.050873458656750081 0.053552135067042428 -0.050873458656750137 -0.050873458656750165 0.053552135067042407 -0.050873458656750137
leaf_weight=0.47248385101556767 4.7686639875173569 1.2318328972905872 3.9486150406301022 1.4244061261415479 1.0968375112861393
leaf_count=28 77 73 234 23 65
internal_value=-0.000906446 -0.0508735 -0.0508735 0.0535521 -0.0508735
internal_weight=12.9428 6.74977 5.18045 6.19307 1.56932
internal_count=500 400 307 100 93
is_linear=0
shrinkage=0.05


Tree=50
num_leaves=4
num_cat=0
split_feature=1 0 2
split_gain=13.3708 8.88178e-16 2.22045e-16
threshold=4.0000000000000009 220245.00000000003 64.613962597821995
decision_type=2 2 2
left_child=1 2 -1
right_child=-2 -3 -4
leaf_value=-0.050830137575560354 0.053366913903424885 -0.050830137575560465 -0.05083013757556043
leaf_weight=0.38555480539798725 5.9109598398208618 4.9318885523825884 1.1084700655192135
leaf_count=24 100 307 69
internal_value=-0.000906257 -0.0508301 -0.0508301
internal_weight=12.3369 6.42591 1.49402
internal_count=500 400 93
is_linear=0
shrinkage=0.05


Tree=51
num_leaves=4
num_cat=0
split_feature=1 2 3
split_gain=12.692 8.88178e-16 8.88178e-16
threshold=4.0000000000000009 229.22833234661763 300.73660203507092
decision_type=2 2 2
left_child=1 -1 -2
right_child=2 -3 -4
leaf_value=-0.050788992981112981 0.053191942599148813 -0.050788992981112849 0.053191942599148806
leaf_weight=5.7961840536445379 3.9484947547316551 0.32116059400141228 1.6922120377421377
leaf_count=379 70 21 30
internal_value=-0.00090607 -0.050789 0.0531919
internal_weight=11.7581 6.11734 5.64071
internal_count=500 400 100
is_linear=0
shrinkage=0.05


Tree=52
num_leaves=3
num_cat=0
split_feature=1 2
split_gain=12.0489 8.88178e-16
threshold=4.0000000000000009 218.45263303279924
decision_type=2 2
left_child=1 -1
right_child=-2 -3
leaf_value=-0.05074992113921354 0.053026593748016451 -0.050749921139213464
leaf_weight=5.3429375952109694 5.3819146007299423 0.48042763117700804
leaf_count=367 100 33
internal_value=-0.000905888 -0.0507499
internal_weight=11.2053 5.82337
internal_count=500 400
is_linear=0
shrinkage=0.05


Tree=53
num_leaves=3
num_cat=0
split_feature=1 0
split_gain=11.4396 8.88178e-16
threshold=4.0000000000000009 700704.50000000012
decision_type=2 2
left_child=1 -1
right_child=-2 -3
leaf_value=-0.050712809495945713 0.052870287452124076 -0.050712809495945692
leaf_weight=4.1297641526907682 5.1341883838176727 1.4135434348136184
leaf_count=298 100 102
internal_value=-0.000905707 -0.0507128
internal_weight=10.6775 5.54331
internal_count=500 400
is_linear=0
shrinkage=0.05


Tree=54
num_leaves=3
num_cat=0
split_feature=1 2
split_gain=10.8621 8.88178e-16
threshold=4.0000000000000009 211.6053310451075
decision_type=2 2
left_child=1 -1
right_child=-2 -3
leaf_value=-0.050677562394967603 0.052722474113686094 -0.050677562394967526
leaf_weight=4.7224962282925844 4.8971373587846756 0.55403587035834778
leaf_count=358 100 42
internal_value=-0.000905532 -0.0506776
internal_weight=10.1737 5.27653
internal_count=500 400
is_linear=0
shrinkage=0.05


Tree=55
num_leaves=3
num_cat=0
split_feature=1 2
split_gain=10.3148 8.88178e-16
threshold=4.0000000000000009 64.613962597821995
decision_type=2 2
left_child=1 -1
right_child=-2 -3
leaf_value=-0.050644082191221941 0.052582655529765987 -0.050644082191221976
leaf_weight=1.0672657517716286 4.6703744679689407 3.9551613153889775
leaf_count=85 100 315
internal_value=-0.000905364 -0.0506441
internal_weight=9.6928 5.02243
internal_count=500 400
is_linear=0
shrinkage=0.05


Tree=56
num_leaves=5
num_cat=0
split_feature=1 0 2 2
split_gain=9.7959 8.88178e-16 8.88178e-16 4.44089e-16
threshold=4.0000000000000009 760415.50000000012 35.686765258310707 22.181585647014526
decision_type=2 2 2 2
left_child=2 3 -1 -2
right_child=1 -3 -4 -5
leaf_value=-0.050612274892404288 0.052450361682356374 0.052450361682356408 -0.050612274892404385 0.052450361682356388
leaf_weight=0.41828563436865795 1.3360560312867167 2.0486192479729652 4.3621216155588627 1.0688448250293729
leaf_count=35 30 46 365 24
internal_value=-0.000905199 0.0524504 -0.0506123 0.0524504
internal_weight=9.23393 4.45352 4.78041 2.4049
internal_count=500 100 400 54
is_linear=0
shrinkage=0.05


Tree=57
num_leaves=8
num_cat=0
split_feature=1 2 2 2 2 2 2
split_gain=9.30388 8.88178e-16 8.88178e-16 8.88178e-16 4.44089e-16 4.44089e-16 4.44089e-16
threshold=4.0000000000000009 211.6053310451075 170.69810862907528 25.80711983189757 25.229668105375548 21.172694137553361 150.5693552794983
decision_type=2 2 2 2 2 2 2
left_child=1 2 4 5 -1 -2 -6
right_child=3 -3 -4 -5 6 -7 -8
leaf_value=-0.050582057164743538 0.05232515211906888 -0.050582057164743705 -0.050582057164743746 0.052325152119068866 -0.050582057164743767 0.052325152119068845 -0.050582057164743711
leaf_weight=0.26161993946880135 2.2929483354091649 0.47774075902998436 0.88723283819854248 1.1040121614933012 2.4114533551037316 0.84924012422561634 0.51186509896069754
leaf_count=23 54 42 78 26 212 20 45
internal_value=-0.000905038 -0.0505821 -0.0505821 0.0523252 -0.0505821 0.0523252 -0.0505821
internal_weight=8.79611 4.54991 4.07217 4.2462 3.18494 3.14219 2.92332
internal_count=500 400 358 100 280 74 257
is_linear=0
shrinkage=0.05


Tree=58
num_leaves=5
num_cat=0
split_feature=1 0 2 2
split_gain=8.83727 8.88178e-16 8.88178e-16 4.44089e-16
threshold=4.0000000000000009 760415.50000000012 170.49345863321719 69.005552403260353
decision_type=2 2 2 2
left_child=2 -2 3 -1
right_child=1 -3 -4 -5
leaf_value=-0.05055334730688045 0.052206613559851713 0.052206613559851713 -0.050553347306880485 -0.050553347306880492
leaf_weight=1.0176454018801453 2.1859471052885056 1.8621030896902082 1.3315998343750832 1.9811607291921971
leaf_count=94 54 46 123 183
internal_value=-0.000904883 0.0522066 -0.0505533 -0.0505533
internal_weight=8.37846 4.04805 4.33041 2.99881
internal_count=500 100 400 277
is_linear=0
shrinkage=0.05


Tree=59
num_leaves=5
num_cat=0
split_feature=1 1 1 2
split_gain=8.39469 8.88178e-16 8.88178e-16 4.44089e-16
threshold=4.0000000000000009 1.5000000000000002 5.5000000000000009 203.44853728167567
decision_type=2 2 2 2
left_child=1 -1 -2 -3
right_child=2 3 -4 -5
leaf_value=-0.050526071119504051 0.052094370133662853 -0.050526071119504051 0.052094370133662832 -0.05052607111950394
leaf_weight=1.7206750307232139 2.1994655951857567 2.0709921028465037 1.6592459753155711 0.3297101855278014
leaf_count=167 57 201 43 32
internal_value=-0.000904734 -0.0505261 0.0520944 -0.0505261
internal_weight=7.98009 4.12138 3.85871 2.4007
internal_count=500 400 100 233
is_linear=0
shrinkage=0.05


Tree=60
num_leaves=5
num_cat=0
split_feature=1 1 2 2
split_gain=7.97483 4.44089e-16 4.44089e-16 2.22045e-16
threshold=4.0000000000000009 5.5000000000000009 22.62357074197104 22.98979081629955
decision_type=2 2 2 2
left_child=-1 2 -2 -3
right_child=1 3 -4 -5
leaf_value=-0.050500149920082185 0.051988059498307239 0.051988059498307218 0.051988059498307232 0.051988059498307218
leaf_weight=3.9223369210958481 1.2872427515685561 0.84590237960219405 0.80912401527166355 0.73556728661060333
leaf_count=400 35 23 22 20
internal_value=-0.000904588 0.0519881 0.0519881 0.0519881
internal_weight=7.60017 3.67784 2.09637 1.58147
internal_count=500 100 57 43
is_linear=0
shrinkage=0.05


Tree=61
num_leaves=6
num_cat=0
split_feature=1 1 2 2 2
split_gain=7.57648 4.44089e-16 4.44089e-16 2.22045e-16 1.11022e-16
threshold=4.0000000000000009 2.5000000000000004 35.686765258310707 173.44008455122022 146.81270314415289
decision_type=2 2 2 2 2
left_child=1 2 -1 4 -3
right_child=-2 3 -4 -5 -6
leaf_value=-0.050475519213428979 0.051887342314057797 -0.05047551921342916 -0.050475519213429243 -0.05047551921342909 -0.050475519213429014
leaf_weight=0.23330107796937261 3.5050854086875916 0.55059054400771879 2.4636593833565712 0.28929333668202162 0.19597290549427271
leaf_count=25 100 59 264 31 21
internal_value=-0.00090445 -0.0504755 -0.0504755 -0.0504755 -0.0504755
internal_weight=7.2379 3.73282 2.69696 1.03586 0.746563
internal_count=500 400 289 111 80
is_linear=0
shrinkage=0.05


Tree=62
num_leaves=4
num_cat=0
split_feature=1 2 2
split_gain=7.19848 4.44089e-16 4.44089e-16
threshold=4.0000000000000009 202.24268400161449 14.736461074589261
decision_type=2 2 2
left_child=1 -1 -2
right_child=2 -3 -4
leaf_value=-0.050452110903053564 0.051791912639734775 -0.050452110903053508 0.051791912639734809
leaf_weight=2.9662300050258641 1.3026502355933192 0.58614125847816456 2.0374785736203194
leaf_count=334 39 66 61
internal_value=-0.000904312 -0.0504521 0.0517919
internal_weight=6.8925 3.55237 3.34013
internal_count=500 400 100
is_linear=0
shrinkage=0.05


Tree=63
num_leaves=7
num_cat=0
split_feature=1 2 0 4 5 3
split_gain=6.83974 8.88178e-16 4.44089e-16 4.44089e-16 4.44089e-16 2.22045e-16
threshold=4.0000000000000009 102.60159103090761 760415.50000000012 0.74773634558436053 -1.0000000180025095e-35 232.69286091918204
decision_type=2 2 2 2 2 2
left_child=1 4 5 -3 -1 -2
right_child=2 3 -4 -5 -6 -7
leaf_value=-0.05042987304422334 0.051701469165732566 -0.050429873044223139 0.051701469165732573 -0.050429873044223361 -0.050429873044223167 0.051701469165732518
leaf_weight=1.005720406770706 1.0502733886241911 0.27044582366943393 1.4640174508094788 1.8086064457893369 0.29580011963844333 0.66835579276084911
leaf_count=119 33 32 46 214 35 21
internal_value=-0.000904183 -0.0504299 0.0517015 -0.0504299 -0.0504299 0.0517015
internal_weight=6.56322 3.38057 3.18265 2.07905 1.30152 1.71863
internal_count=500 400 100 246 154 54
is_linear=0
shrinkage=0.05


Tree=64
num_leaves=6
num_cat=0
split_feature=1 1 2 2 2
split_gain=6.49926 4.44089e-16 4.44089e-16 2.22045e-16 2.22045e-16
threshold=4.0000000000000009 5.5000000000000009 229.22833234661763 22.62357074197104 22.181585647014526
decision_type=2 2 2 2 2
left_child=2 3 -1 -2 -3
right_child=1 4 -4 -5 -6
leaf_value=-0.050408726240384422 0.051615737154700081 0.051615737154700053 -0.050408726240384172 0.051615737154700039 0.051615737154700039
leaf_weight=3.048121753148735 1.0613149963319299 0.66711228340864182 0.16889328975230444 0.66711228340864193 0.6367889977991581
leaf_count=379 35 22 21 22 21
internal_value=-0.000904056 0.0516157 -0.0504087 0.0516157 0.0516157
internal_weight=6.24934 3.03233 3.21702 1.72843 1.3039
internal_count=500 100 400 57 43
is_linear=0
shrinkage=0.05


Tree=65
num_leaves=2
num_cat=0
split_feature=1
split_gain=6.17605
threshold=4.0000000000000009
decision_type=2
left_child=-1
right_child=-2
leaf_value=-0.050388633547216746 0.05153445675458336
leaf_weight=3.0613088980317116 2.8888747096061707
leaf_count=400 100
internal_value=-0.000903936
internal_weight=5.95018
internal_count=500
is_linear=0
shrinkage=0.05


Tree=66
num_leaves=3
num_cat=0
split_feature=1 2
split_gain=5.86921 4.44089e-16
threshold=4.0000000000000009 20.719115009233871
decision_type=2 2
left_child=-1 -2
right_child=1 -3
leaf_value=-0.050369538739001629 0.051457380406723353 0.051457380406723374
leaf_weight=2.9130833223462105 1.4035173878073695 1.3484774902462957
leaf_count=400 51 49
internal_value=-0.000903821 0.0514574
internal_weight=5.66508 2.75199
internal_count=500 100
is_linear=0
shrinkage=0.05


Tree=67
num_leaves=7
num_cat=0
split_feature=1 2 2 2 2 3
split_gain=5.57789 4.44089e-16 4.44089e-16 4.44089e-16 2.22045e-16 1.11022e-16
threshold=4.0000000000000009 182.2836248579014 102.60159103090761 22.181585647014526 13.170438295489454 37.125994178057248
decision_type=2 2 2 2 2 2
left_child=1 2 -1 4 -2 -3
right_child=3 5 -4 -5 -6 -7
leaf_value=-0.050351384742001286 0.051384285404586783 -0.050351384742001286 -0.050351384742001327 0.051384285404586817 0.051384285404586762 -0.050351384742001043
leaf_weight=1.0672139991074807 0.91749292798340343 0.53360699955373991 1.0187042718753216 1.153419680893421 0.55049575679004192 0.15245914272964001
leaf_count=154 35 77 147 44 21 22
internal_value=-0.000903709 -0.0503514 -0.0503514 0.0513843 0.0513843 -0.0503514
internal_weight=5.39339 2.77198 2.08592 2.62141 1.46799 0.686066
internal_count=500 400 301 100 56 99
is_linear=0
shrinkage=0.05


Tree=68
num_leaves=3
num_cat=0
split_feature=1 0
split_gain=5.30127 4.44089e-16
threshold=4.0000000000000009 760415.50000000012
decision_type=2 2
left_child=-1 -2
right_child=1 -3
leaf_value=-0.050334127632794101 0.051314951009464163 0.051314951009464149
leaf_weight=2.6376742869615555 1.3482962474226952 1.1485486552119255
leaf_count=400 54 46
internal_value=-0.000903602 0.051315
internal_weight=5.13452 2.49684
internal_count=500 100
is_linear=0
shrinkage=0.05


Tree=69
num_leaves=4
num_cat=0
split_feature=1 2 2
split_gain=5.03859 4.44089e-16 2.22045e-16
threshold=4.0000000000000009 17.045468846086354 9.7403538569513461
decision_type=2 2 2
left_child=-1 2 -2
right_child=1 -3 -4
leaf_value=-0.050317728606892237 0.051249175121063723 0.051249175121063799 0.051249175121063743
leaf_weight=2.5098305195569992 0.54695005528628848 1.3079240452498195 0.5231696180999279
leaf_count=400 23 55 22
internal_value=-0.0009035 0.0512492 0.0512492
internal_weight=4.88787 2.37804 1.07012
internal_count=500 100 45
is_linear=0
shrinkage=0.05


Tree=70
num_leaves=6
num_cat=0
split_feature=1 2 2 2 2
split_gain=4.78911 4.44089e-16 4.44089e-16 4.44089e-16 2.22045e-16
threshold=4.0000000000000009 25.229668105375548 14.203175364173601 210.42178567068086 27.894441861455039
decision_type=2 2 2 2 2
left_child=1 -1 -2 -3 -4
right_child=2 3 4 -5 -6
leaf_value=-0.050302138767785304 0.051186769880782579 -0.050302138767785755 0.051186769880782627 -0.050302138767785623 0.051186769880782551
leaf_weight=0.13731839274987612 0.81531120836734805 1.9821611475199463 0.99649147689342477 0.26866642059758294 0.45295067131519318
leaf_count=23 36 332 44 45 20
internal_value=-0.000903402 -0.0503021 0.0511868 -0.0503021 0.0511868
internal_weight=4.6529 2.38815 2.26475 2.25083 1.44944
internal_count=500 400 100 377 64
is_linear=0
shrinkage=0.05


Tree=71
num_leaves=5
num_cat=0
split_feature=1 2 2 2
split_gain=4.55217 4.44089e-16 2.22045e-16 5.55112e-17
threshold=4.0000000000000009 144.38029225096156 41.542803360019455 27.894441861455039
decision_type=2 2 2 2
left_child=1 2 3 -1
right_child=-2 -3 -4 -5
leaf_value=-0.050287315878195807 0.051127554092507126 -0.050287315878196251 -0.050287315878196251 -0.050287315878195897
leaf_weight=0.13633964583277736 2.1567322313785553 1.0055048880167303 1.0055048880167303 0.1249780086800456
leaf_count=24 100 177 177 22
internal_value=-0.000903308 -0.0502873 -0.0502873 -0.0502873
internal_weight=4.42906 2.27233 1.26682 0.261318
internal_count=500 400 223 46
is_linear=0
shrinkage=0.05


Tree=72
num_leaves=5
num_cat=0
split_feature=1 2 2 2
split_gain=4.32712 4.44089e-16 4.44089e-16 2.22045e-16
threshold=4.0000000000000009 23.467460903288583 19.070446851939309 25.80711983189757
decision_type=2 2 2 2
left_child=1 -1 -2 -4
right_child=2 -3 3 -5
leaf_value=-0.050273224726324554 0.051071347431859697 -0.050273224726325116 0.051071347431859704 0.051071347431859676
leaf_weight=0.11351000564172897 0.9447240270674232 2.0485853399150074 0.57504940778017022 0.53397445008158684
leaf_count=21 46 379 28 26
internal_value=-0.00090322 -0.0502732 0.0510713 0.0510713
internal_weight=4.21584 2.1621 2.05375 1.10902
internal_count=500 400 100 54
is_linear=0
shrinkage=0.05


Tree=73
num_leaves=7
num_cat=0
split_feature=1 1 2 2 2 2
split_gain=4.11333 4.44089e-16 1.11022e-16 1.11022e-16 1.11022e-16 5.55112e-17
threshold=4.0000000000000009 1.5000000000000002 210.42178567068086 182.2836248579014 121.2137498891218 50.434558368970308
decision_type=2 2 2 2 2 2
left_child=1 2 3 4 5 -1
right_child=-2 -3 -4 -5 -6 -7
leaf_value=-0.050259828110437603 0.051018009374487132 -0.050259828110438026 -0.050259828110437603 -0.050259828110437693 -0.050259828110437825 -0.050259828110437867
leaf_weight=0.14400280825793776 1.9555764272809026 1.1983090830035505 0.10800210619345307 0.13371689338237047 0.21086125494912267 0.26229082932695746
leaf_count=28 100 233 21 26 41 51
internal_value=-0.000903131 -0.0502598 -0.0502598 -0.0502598 -0.0502598 -0.0502598
internal_weight=4.01276 2.05718 0.858874 0.750872 0.617155 0.406294
internal_count=500 400 167 146 120 79
is_linear=0
shrinkage=0.05


Tree=74
num_leaves=4
num_cat=0
split_feature=1 5 2
split_gain=3.91023 4.44089e-16 2.22045e-16
threshold=4.0000000000000009 -0.17648367667313306 17.045468846086354
decision_type=2 2 2
left_child=1 -1 -2
right_child=2 -3 -4
leaf_value=-0.050247093507365996 0.050967373356858726 -0.050247093507365947 0.050967373356858726
leaf_weight=1.1841885466128586 0.83790147677063931 0.77314789406955275 1.0241018049418924
leaf_count=242 45 158 55
internal_value=-0.000903049 -0.0502471 0.0509674
internal_weight=3.81934 1.95734 1.862
internal_count=500 400 100
is_linear=0
shrinkage=0.05


Tree=75
num_leaves=3
num_cat=0
split_feature=1 5
split_gain=3.71729 4.44089e-16
threshold=4.0000000000000009 -0.19160106479442715
decision_type=2 2
left_child=1 -1
right_child=-2 -3
leaf_value=-0.050234981826765127 0.050919307114715762 -0.050234981826765085
leaf_weight=1.1127323750406501 1.7728220671415327 0.74958122335374389
leaf_count=239 100 161
internal_value=-0.00090297 -0.050235
internal_weight=3.63514 1.86231
internal_count=500 400
is_linear=0
shrinkage=0.05


Tree=76
num_leaves=5
num_cat=0
split_feature=1 0 2 2
split_gain=3.53396 2.22045e-16 2.22045e-16 1.11022e-16
threshold=4.0000000000000009 760415.50000000012 216.42286981134228 22.62357074197104
decision_type=2 2 2 2
left_child=2 3 -1 -2
right_child=1 -3 -4 -5
leaf_value=-0.050223469066595597 0.050873669204290255 0.050873669204290262 -0.050223469066595354 0.050873669204290199
leaf_weight=1.6124137975275519 0.5232288986444471 0.77640417218208313 0.15946949645876873 0.38820208609104156
leaf_count=364 31 46 36 23
internal_value=-0.000902894 0.0508737 -0.0502235 0.0508737
internal_weight=3.45972 1.68784 1.77188 0.911431
internal_count=500 100 400 54
is_linear=0
shrinkage=0.05


Tree=77
num_leaves=4
num_cat=0
split_feature=1 2 1
split_gain=3.35978 4.44089e-16 2.22045e-16
threshold=4.0000000000000009 31.787783268488923 5.5000000000000009
decision_type=2 2 2
left_child=1 -1 -2
right_child=2 -3 -4
leaf_value=-0.050212524810213204 0.050830332484227747 -0.05021252481021371 0.050830332484227719
leaf_weight=0.1222223658114675 0.91590606607496716 1.5636033695191143 0.6909466814249754
leaf_count=29 57 371 43
internal_value=-0.000902823 -0.0502125 0.0508303
internal_weight=3.29268 1.68583 1.60685
internal_count=500 400 100
is_linear=0
shrinkage=0.05


Tree=78
num_leaves=5
num_cat=0
split_feature=1 4 2 2
split_gain=3.19427 4.44089e-16 2.22045e-16 2.22045e-16
threshold=4.0000000000000009 0.6855855696977261 42.361634751810527 193.76856515116773
decision_type=2 2 2 2
left_child=2 -2 -1 -4
right_child=1 -3 3 -5
leaf_value=-0.050202118466772375 0.050789180388472278 0.050789180388472327 -0.050202118466772673 -0.050202118466772576
leaf_weight=0.19648154778406057 0.48950171470642079 1.0401911437511442 1.0946829090826211 0.31276654545217741
leaf_count=49 32 68 273 78
internal_value=-0.000902753 0.0507892 -0.0502021 -0.0502021
internal_weight=3.13362 1.52969 1.60393 1.40745
internal_count=500 100 400 351
is_linear=0
shrinkage=0.05


Tree=79
num_leaves=5
num_cat=0
split_feature=1 0 2 2
split_gain=3.03698 2.22045e-16 2.22045e-16 5.55112e-17
threshold=4.0000000000000009 220245.00000000003 12.321694310726004 183.89688842744889
decision_type=2 2 2 2
left_child=1 3 -2 -1
right_child=2 -3 -4 -5
leaf_value=-0.05019221805988601 0.050750101131230664 -0.050192218059886218 0.05075010113123072 -0.050192218059885656
leaf_weight=0.27086494653485749 0.45141612645238627 1.1712047688197342 1.0047649266198275 0.08392998343333602
leaf_count=71 31 307 69 22
internal_value=-0.000902686 -0.0501922 0.0507501 -0.0501922
internal_weight=2.98218 1.526 1.45618 0.354795
internal_count=500 400 100 93
is_linear=0
shrinkage=0.05


Tree=80
num_leaves=7
num_cat=0
split_feature=1 0 0 2 2 2
split_gain=2.88752 2.22045e-16 2.22045e-16 1.11022e-16 5.55112e-17 5.55112e-17
threshold=4.0000000000000009 220245.00000000003 760415.50000000012 21.172694137553361 183.89688842744889 131.27468567315293
decision_type=2 2 2 2 2 2
left_child=1 4 -2 -4 5 -1
right_child=2 -3 3 -5 -6 -7
leaf_value=-0.050182811304747665 0.050712982369008466 -0.050182811304748012 0.050712982369008369 0.050712982369008355 -0.050182811304747423 -0.050182811304747478
leaf_weight=0.17059132806025479 0.7485212869942186 1.1142880364786831 0.33267612755298615 0.30495311692357063 0.07985125994309783 0.08711046539247036
leaf_count=47 54 307 24 22 22 24
internal_value=-0.000902624 -0.0501828 0.050713 0.050713 -0.0501828 -0.0501828
internal_weight=2.83799 1.45184 1.38615 0.637629 0.337553 0.257702
internal_count=500 400 100 46 93 71
is_linear=0
shrinkage=0.05


Tree=81
num_leaves=6
num_cat=0
split_feature=1 1 2 2 2
split_gain=2.74547 2.22045e-16 2.22045e-16 2.22045e-16 1.11022e-16
threshold=4.0000000000000009 2.5000000000000004 203.44853728167567 17.045468846086354 193.76856515116773
decision_type=2 2 2 2 2
left_child=1 2 -1 -2 -3
right_child=3 4 -4 -5 -6
leaf_value=-0.050173861835735759 0.050677725204790594 -0.050173861835735668 -0.050173861835735523 0.050677725204790594 -0.050173861835735106
leaf_weight=0.83567079016938828 0.5937486235052345 0.31423984258435667 0.1622996989171952 0.72569276206195354 0.069063701666891575
leaf_count=242 45 91 47 55 20
internal_value=-0.000902563 -0.0501739 -0.0501739 0.0506777 -0.0501739
internal_weight=2.70072 1.38127 0.99797 1.31944 0.383304
internal_count=500 400 289 100 111
is_linear=0
shrinkage=0.05


Tree=82
num_leaves=4
num_cat=0
split_feature=1 0 2
split_gain=2.61047 2.22045e-16 2.22045e-16
threshold=4.0000000000000009 760415.50000000012 67.689050831121293
decision_type=2 2 2
left_child=2 -2 -1
right_child=1 -3 -4
leaf_value=-0.050165354175575411 0.050644235587216063 0.050644235587216029 -0.050165354175575584
leaf_weight=0.29896361241117153 0.67818627320229985 0.57771423272788525 1.0151621564291415
leaf_count=91 54 46 309
internal_value=-0.000902506 0.0506442 -0.0501654
internal_weight=2.57003 1.2559 1.31413
internal_count=500 100 400
is_linear=0
shrinkage=0.05


Tree=83
num_leaves=3
num_cat=0
split_feature=1 0
split_gain=2.48216 2.22045e-16
threshold=4.0000000000000009 760415.50000000012
decision_type=2 2
left_child=-1 -2
right_child=1 -3
leaf_value=-0.050157263789586862 0.050612423804923715 0.050612423804923694
leaf_weight=1.2502316385507586 0.64550600387155987 0.54987548477947712
leaf_count=400 54 46
internal_value=-0.00090245 0.0506124
internal_weight=2.44561 1.19538
internal_count=500 100
is_linear=0
shrinkage=0.05


Tree=84
num_leaves=4
num_cat=0
split_feature=1 2 2
split_gain=2.3602 2.22045e-16 2.77556e-17
threshold=4.0000000000000009 48.371307038872203 37.373462651284548
decision_type=2 2 2
left_child=1 2 -1
right_child=-2 -3 -4
leaf_value=-0.050149567852886393 0.05058219921242172 -0.050149567852886962 -0.050149567852886295
leaf_weight=0.11002273694612119 1.137744355946779 1.0080461574252693 0.071366099640727043
leaf_count=37 100 339 24
internal_value=-0.000902397 -0.0501496 -0.0501496
internal_weight=2.32718 1.18943 0.181389
internal_count=500 400 61
is_linear=0
shrinkage=0.05


Tree=85
num_leaves=3
num_cat=0
split_feature=1 1
split_gain=2.24427 2.22045e-16
threshold=4.0000000000000009 2.5000000000000004
decision_type=2 2
left_child=1 -1
right_child=-2 -3
leaf_value=-0.050142255547735839 0.050553479987088715 -0.050142255547735763
leaf_weight=0.81757121090777241 1.0828551836311815 0.31401524017564952
leaf_count=289 100 111
internal_value=-0.000902349 -0.0501423
internal_weight=2.21444 1.13159
internal_count=500 400
is_linear=0
shrinkage=0.05


Tree=86
num_leaves=2
num_cat=0
split_feature=1
split_gain=2.13408
threshold=4.0000000000000009
decision_type=2
left_child=-1
right_child=-2
leaf_value=-0.050135297961762686 0.050526196313119477
leaf_weight=1.0765438899397852 1.0305859148502348
leaf_count=400 100
internal_value=-0.0009023
internal_weight=2.10713
internal_count=500
is_linear=0
shrinkage=0.05


Tree=87
num_leaves=3
num_cat=0
split_feature=1 2
split_gain=2.02934 2.22045e-16
threshold=4.0000000000000009 81.179960639181957
decision_type=2 2
left_child=1 -1
right_child=-2 -3
leaf_value=-0.050128680982194612 0.050500270001755658 -0.050128680982194744
leaf_weight=0.29444944695569597 0.98081426694989193 0.7297225424554199
leaf_count=115 100 285
internal_value=-0.000902253 -0.0501287
internal_weight=2.00499 1.02417
internal_count=500 400
is_linear=0
shrinkage=0.05


Tree=88
num_leaves=4
num_cat=0
split_feature=1 0 2
split_gain=1.92976 1.11022e-16 1.11022e-16
threshold=4.0000000000000009 760415.50000000012 218.45263303279924
decision_type=2 2 2
left_child=2 -2 -1
right_child=1 -3 -4
leaf_value=-0.050122391550686408 0.050475632164090581 0.05047563216409056 -0.050122391550685846
leaf_weight=0.89395856601186097 0.50404856353998184 0.42937470227479935 0.080383195308968425
leaf_count=367 54 46 33
internal_value=-0.000902213 0.0504756 -0.0501224
internal_weight=1.90777 0.933423 0.974342
internal_count=500 100 400
is_linear=0
shrinkage=0.05


Tree=89
num_leaves=5
num_cat=0
split_feature=1 0 2 2
split_gain=1.8351 1.11022e-16 1.11022e-16 1.11022e-16
threshold=4.0000000000000009 220245.00000000003 11.933611009099769 27.894441861455039
decision_type=2 2 2 2
left_child=1 -1 -2 -4
right_child=2 -3 3 -5
leaf_value=-0.050116408996468013 0.050452219701211679 -0.05011640899646818 0.050452219701211769 0.050452219701211588
leaf_weight=0.21551130968146026 0.25760738831013441 0.7114190545398742 0.45303368289023638 0.1776602678000927
leaf_count=93 29 307 51 20
internal_value=-0.00090217 -0.0501164 0.0504522 0.0504522
internal_weight=1.81523 0.92693 0.888301 0.630694
internal_count=500 400 100 71
is_linear=0
shrinkage=0.05


Tree=90
num_leaves=4
num_cat=0
split_feature=1 2 2
split_gain=1.74511 1.11022e-16 1.11022e-16
threshold=4.0000000000000009 209.47156146000151 196.37111006621762
decision_type=2 2 2
left_child=1 2 -1
right_child=-2 -3 -4
leaf_value=-0.050110714684782565 0.050429970381593081 -0.05011071468478219 -0.05011071468478169
leaf_weight=0.71647964650765061 0.845341756939888 0.11243219068273902 0.052909266203641891
leaf_count=325 100 51 24
internal_value=-0.00090213 -0.0501107 -0.0501107
internal_weight=1.72716 0.881821 0.769389
internal_count=500 400 349
is_linear=0
shrinkage=0.05


Tree=91
num_leaves=5
num_cat=0
split_feature=1 0 2 2
split_gain=1.65956 1.11022e-16 1.11022e-16 1.11022e-16
threshold=4.0000000000000009 220245.00000000003 13.170438295489454 25.80711983189757
decision_type=2 2 2 2
left_child=1 -1 -2 -4
right_child=2 -3 3 -5
leaf_value=-0.050105304970321077 0.05040882704276313 -0.050105304970321257 0.05040882704276315 0.050408827042763074
leaf_weight=0.19504483113996685 0.28155495412647724 0.64385766838677227 0.31373266316950321 0.20915510877966881
leaf_count=93 35 307 39 26
internal_value=-0.000902094 -0.0501053 0.0504088 0.0504088
internal_weight=1.64335 0.838902 0.804443 0.522888
internal_count=500 400 100 65
is_linear=0
shrinkage=0.05


Tree=92
num_leaves=5
num_cat=0
split_feature=1 1 4 2
split_gain=1.57822 1.11022e-16 1.11022e-16 5.55112e-17
threshold=4.0000000000000009 1.5000000000000002 0.83522951562187941 202.24268400161449
decision_type=2 2 2 2
left_child=1 -1 -2 -3
right_child=2 3 -4 -5
leaf_value=-0.05010016108862473 0.050388727755831413 -0.050100161088624764 0.050388727755831308 -0.050100161088624168
leaf_weight=0.33319362718611956 0.52054483443498611 0.39504394121468067 0.24496227502822876 0.069830999709665775
leaf_count=167 68 198 32 35
internal_value=-0.000902057 -0.0501002 0.0503887 -0.0501002
internal_weight=1.56358 0.798069 0.765507 0.464875
internal_count=500 400 100 233
is_linear=0
shrinkage=0.05


Tree=93
num_leaves=5
num_cat=0
split_feature=1 1 3 2
split_gain=1.50088 1.11022e-16 1.11022e-16 2.77556e-17
threshold=4.0000000000000009 2.5000000000000004 311.82530266213934 193.76856515116773
decision_type=2 2 2 2
left_child=1 -1 -2 -3
right_child=2 3 -4 -5
leaf_value=-0.050095264404723727 0.050369624452836374 -0.050095264404723533 0.050369624452836208 -0.050095264404722506
leaf_weight=0.54853546246886253 0.53176273358985782 0.17272223904728889 0.19667936721816659 0.037960931658744812
leaf_count=289 73 91 27 20
internal_value=-0.000902022 -0.0500953 0.0503696 -0.0500953
internal_weight=1.48766 0.759219 0.728442 0.210683
internal_count=500 400 100 111
is_linear=0
shrinkage=0.05


Tree=94
num_leaves=3
num_cat=0
split_feature=1 0
split_gain=1.42735 1.11022e-16
threshold=4.0000000000000009 760415.50000000012
decision_type=2 2
left_child=-1 -2
right_child=1 -3
leaf_value=-0.050090610515913153 0.05035146668776988 0.050351466687769852
leaf_weight=0.72225653566420078 0.37430593091994524 0.31885320041328669
leaf_count=400 54 46
internal_value=-0.000901991 0.0503515
internal_weight=1.41542 0.693159
internal_count=500 100
is_linear=0
shrinkage=0.05


Tree=95
num_leaves=3
num_cat=0
split_feature=1 2
split_gain=1.35744 1.11022e-16
threshold=4.0000000000000009 200.44219157476402
decision_type=2 2
left_child=1 -1
right_child=-2 -3
leaf_value=-0.050086179997728165 0.050334211413278922 -0.050086179997727832
leaf_weight=0.56856769183650613 0.65957373008131981 0.11852317443117499
leaf_count=331 100 69
internal_value=-0.000901957 -0.0500862
internal_weight=1.34666 0.687091
internal_count=500 400
is_linear=0
shrinkage=0.05


Tree=96
num_leaves=3
num_cat=0
split_feature=1 0
split_gain=1.29097 1.11022e-16
threshold=4.0000000000000009 220245.00000000003
decision_type=2 2
left_child=1 -1
right_child=-2 -3
leaf_value=-0.05008197441905099 0.05031780593189257 -0.050081974419051226
leaf_weight=0.15197004284709692 0.62760533764958382 0.50166455004364252
leaf_count=93 100 307
internal_value=-0.000901929 -0.050082
internal_weight=1.28124 0.653635
internal_count=500 400
is_linear=0
shrinkage=0.05


Tree=97
num_leaves=4
num_cat=0
split_feature=1 2 2
split_gain=1.22777 1.11022e-16 5.55112e-17
threshold=4.0000000000000009 27.894441861455039 22.98979081629955
decision_type=2 2 2
left_child=-1 2 -2
right_child=1 -3 -4
leaf_value=-0.050077966569558478 0.05030221189805574 0.050302211898055449 0.050302211898055477
leaf_weight=0.62180492095649242 0.35233447328209877 0.11943541467189789 0.12540718540549278
leaf_count=400 59 20 21
internal_value=-0.000901899 0.0503022 0.0503022
internal_weight=1.21898 0.597177 0.477742
internal_count=500 100 80
is_linear=0
shrinkage=0.05


Tree=98
num_leaves=3
num_cat=0
split_feature=1 2
split_gain=1.16767 1.11022e-16
threshold=4.0000000000000009 216.42286981134228
decision_type=2 2
left_child=1 -1
right_child=-2 -3
leaf_value=-0.050074160470489272 0.050287379329487486 -0.050074160470488419
leaf_weight=0.53828590037301183 0.56821568869054317 0.053237067069858313
leaf_count=364 100 36
internal_value=-0.000901874 -0.0500742
internal_weight=1.15974 0.591523
internal_count=500 400
is_linear=0
shrinkage=0.05


Tree=99
num_leaves=4
num_cat=0
split_feature=1 2 3
split_gain=1.11052 1.11022e-16 1.11022e-16
threshold=4.0000000000000009 218.45263303279924 311.82530266213934
decision_type=2 2 2
left_child=1 -1 -2
right_child=2 -3 -4
leaf_value=-0.050070538470692094 0.050273285252285839 -0.050070538470691123 0.050273285252285631
leaf_weight=0.51628987560980022 0.39467537216842175 0.046423885272815824 0.14597582258284092
leaf_count=367 73 33 27
internal_value=-0.00090185 -0.0500705 0.0502733
internal_weight=1.10336 0.562714 0.540651
internal_count=500 400 100
is_linear=0
shrinkage=0.05


end of trees

feature_importances:
Column_2=155
Column_1=119
Column_0=29
Column_3=14
Column_5=7
Column_4=6

parameters:
[boosting: gbdt]
[objective: binary]
[metric: auc]
[tree_learner: serial]
[device_type: cpu]
[data_sample_strategy: bagging]
[data: ]
[valid: ]
[num_iterations: 100]
[learning_rate: 0.05]
[num_leaves: 31]
[num_threads: 0]
[seed: 0]
[deterministic: 0]
[force_col_wise: 0]
[force_row_wise: 0]
[histogram_pool_size: -1]
[max_depth: -1]
[min_data_in_leaf: 20]
[min_sum_hessian_in_leaf: 0.001]
[bagging_fraction: 1]
[pos_bagging_fraction: 1]
[neg_bagging_fraction: 1]
[bagging_freq: 0]
[bagging_seed: 3]
[bagging_by_query: 0]
[feature_fraction: 1]
[feature_fraction_bynode: 1]
[feature_fraction_seed: 2]
[extra_trees: 0]
[extra_seed: 6]
[early_stopping_round: 0]
[early_stopping_min_delta: 0]
[first_metric_only: 0]
[max_delta_step: 0]
[lambda_l1: 0]
[lambda_l2: 0]
[linear_lambda: 0]
[min_gain_to_split: 0]
[drop_rate: 0.1]
[max_drop: 50]
[skip_drop: 0.5]
[xgboost_dart_mode: 0]
[uniform_drop: 0]
[drop_seed: 4]
[top_rate: 0.2]
[other_rate: 0.1]
[min_data_per_group: 100]
[max_cat_threshold: 32]
[cat_l2: 10]
[cat_smooth: 10]
[max_cat_to_onehot: 4]
[top_k: 20]
[monotone_constraints: ]
[monotone_constraints_method: basic]
[monotone_penalty: 0]
[feature_contri: ]
[forcedsplits_filename: ]
[refit_decay_rate: 0.9]
[cegb_tradeoff: 1]
[cegb_penalty_split: 0]
[cegb_penalty_feature_lazy: ]
[cegb_penalty_feature_coupled: ]
[path_smooth: 0]
[interaction_constraints: ]
[verbosity: -1]
[saved_feature_importance_type: 0]
[use_quantized_grad: 0]
[num_grad_quant_bins: 4]
[quant_train_renew_leaf: 0]
[stochastic_rounding: 1]
[linear_tree: 0]
[max_bin: 255]
[max_bin_by_feature: ]
[min_data_in_bin: 3]
[bin_construct_sample_cnt: 200000]
[data_random_seed: 1]
[is_enable_sparse: 1]
[enable_bundle: 1]
[use_missing: 1]
[zero_as_missing: 0]
[feature_pre_filter: 1]
[pre_partition: 0]
[two_round: 0]
[header: 0]
[label_column: ]
[weight_column: ]
[group_column: ]
[ignore_column: ]
[categorical_feature: ]
[forcedbins_filename: ]
[precise_float_parser: 0]
[parser_config_file: ]
[objective_seed: 5]
[num_class: 1]
[is_unbalance: 0]
[scale_pos_weight: 1]
[sigmoid: 1]
[boost_from_average: 1]
[reg_sqrt: 0]
[alpha: 0.9]
[fair_c: 1]
[poisson_max_delta_step: 0.7]
[tweedie_variance_power: 1.5]
[lambdarank_truncation_level: 30]
[lambdarank_norm: 1]
[label_gain: ]
[lambdarank_position_bias_regularization: 0]
[eval_at: ]
[multi_error_top_k: 1]
[auc_mu_weights: ]
[num_machines: 1]
[local_listen_port: 12400]
[time_out: 120]
[machine_list_filename: ]
[machines: ]
[gpu_platform_id: -1]
[gpu_device_id: -1]
[gpu_use_dp: 0]
[num_gpu: 1]

end of parameters

pandas_categorical:null
